/* Generated by Edge Impulse
 *
 * Permission is hereby granted, free of charge, to any person obtaining a copy
 * of this software and associated documentation files (the "Software"), to deal
 * in the Software without restriction, including without limitation the rights
 * to use, copy, modify, merge, publish, distribute, sublicense, and/or sell
 * copies of the Software, and to permit persons to whom the Software is
 * furnished to do so, subject to the following conditions:
 *
 * The above copyright notice and this permission notice shall be included in
 * all copies or substantial portions of the Software.
 *
 * THE SOFTWARE IS PROVIDED "AS IS", WITHOUT WARRANTY OF ANY KIND, EXPRESS OR
 * IMPLIED, INCLUDING BUT NOT LIMITED TO THE WARRANTIES OF MERCHANTABILITY,
 * FITNESS FOR A PARTICULAR PURPOSE AND NONINFRINGEMENT. IN NO EVENT SHALL THE
 * AUTHORS OR COPYRIGHT HOLDERS BE LIABLE FOR ANY CLAIM, DAMAGES OR OTHER
 * LIABILITY, WHETHER IN AN ACTION OF CONTRACT, TORT OR OTHERWISE, ARISING FROM,
 * OUT OF OR IN CONNECTION WITH THE SOFTWARE OR THE USE OR OTHER DEALINGS IN THE
 * SOFTWARE.
 */
// Generated on: 09.11.2023 07:50:34

#include <stdio.h>
#include <stdlib.h>
#include "edge-impulse-sdk/tensorflow/lite/c/builtin_op_data.h"
#include "edge-impulse-sdk/tensorflow/lite/c/common.h"
#include "edge-impulse-sdk/tensorflow/lite/micro/micro_mutable_op_resolver.h"
#include "edge-impulse-sdk/porting/ei_classifier_porting.h"

#if EI_CLASSIFIER_PRINT_STATE
#if defined(__cplusplus) && EI_C_LINKAGE == 1
extern "C" {
    extern void ei_printf(const char *format, ...);
}
#else
extern void ei_printf(const char *format, ...);
#endif
#endif

#if defined __GNUC__
#define ALIGN(X) __attribute__((aligned(X)))
#elif defined _MSC_VER
#define ALIGN(X) __declspec(align(X))
#elif defined __TASKING__
#define ALIGN(X) __align(X)
#elif defined __ICCARM__
#define ALIGN(x) __attribute__((aligned(x)))
#endif

#ifndef EI_MAX_SCRATCH_BUFFER_COUNT
#ifndef CONFIG_IDF_TARGET_ESP32S3
#define EI_MAX_SCRATCH_BUFFER_COUNT 4
#else
#define EI_MAX_SCRATCH_BUFFER_COUNT 4
#endif // CONFIG_IDF_TARGET_ESP32S3
#endif // EI_MAX_SCRATCH_BUFFER_COUNT

#ifndef EI_MAX_OVERFLOW_BUFFER_COUNT
#define EI_MAX_OVERFLOW_BUFFER_COUNT 10
#endif // EI_MAX_OVERFLOW_BUFFER_COUNT

using namespace tflite;
using namespace tflite::ops;
using namespace tflite::ops::micro;

namespace {

#if defined(EI_CLASSIFIER_ALLOCATION_STATIC_HIMAX) || defined(EI_CLASSIFIER_ALLOCATION_STATIC_HIMAX_GNU)
constexpr int kTensorArenaSize = 8624;
#else
constexpr int kTensorArenaSize = 7600;
#endif

#if defined(EI_CLASSIFIER_ALLOCATION_STATIC)
uint8_t tensor_arena[kTensorArenaSize] ALIGN(16);
#elif defined(EI_CLASSIFIER_ALLOCATION_STATIC_HIMAX)
#pragma Bss(".tensor_arena")
uint8_t tensor_arena[kTensorArenaSize] ALIGN(16);
#pragma Bss()
#elif defined(EI_CLASSIFIER_ALLOCATION_STATIC_HIMAX_GNU)
uint8_t tensor_arena[kTensorArenaSize] ALIGN(16) __attribute__((section(".tensor_arena")));
#else
#define EI_CLASSIFIER_ALLOCATION_HEAP 1
uint8_t* tensor_arena = NULL;
#endif

static uint8_t* tensor_boundary;
static uint8_t* current_location;

template <int SZ, class T> struct TfArray {
  int sz; T elem[SZ];
};
enum used_operators_e {
  OP_FULLY_CONNECTED, OP_SOFTMAX,  OP_LAST
};
struct TensorInfo_t { // subset of TfLiteTensor used for initialization from constant memory
  TfLiteAllocationType allocation_type;
  void* data;
  TfLiteIntArray* dims;
  size_t bytes;
};
struct NodeInfo_t { // subset of TfLiteNode used for initialization from constant memory
  struct TfLiteIntArray* inputs;
  struct TfLiteIntArray* outputs;
  void* builtin_data;
  used_operators_e used_op_index;
};

typedef struct {
  TfLiteTensor tensor;
  int16_t index;
} TfLiteTensorWithIndex;

typedef struct {
  TfLiteEvalTensor tensor;
  int16_t index;
} TfLiteEvalTensorWithIndex;

TfLiteContext ctx{};
static const int MAX_TFL_TENSOR_COUNT = 4;
static TfLiteTensorWithIndex tflTensors[MAX_TFL_TENSOR_COUNT];
static const int MAX_TFL_EVAL_COUNT = 4;
static TfLiteEvalTensorWithIndex tflEvalTensors[MAX_TFL_EVAL_COUNT];
TfLiteRegistration registrations[OP_LAST];
TfLiteNode tflNodes[4];

const TfArray<2, int> tensor_dimension0 = { 2, { 1,1800 } };
const ALIGN(16) float tensor_data1[20] = { -0.010770419612526894, 0.018370397388935089, -0.0095454137772321701, 0.0011255246354267001, 0.040106363594532013, 0.02439463883638382, 0.0046050306409597397, -0.0030199496541172266, -0.015792526304721832, 0.031222090125083923, -0.037100672721862793, 0.062602996826171875, 0.018082620576024055, -0.028244471177458763, -0.011824888177216053, -0.0056407405063509941, 0.021125232800841331, -0.015948139131069183, 0.00059198483359068632, -0.026197385042905807, };
const TfArray<1, int> tensor_dimension1 = { 1, { 20 } };
const ALIGN(16) float tensor_data2[20] = { 0.001433935365639627, -0.0017257677391171455, -0.004979994148015976, 0.011341511271893978, 0.00095590751152485609, -0.0063475007191300392, 0.00013883187784813344, 9.9510049039963633e-05, 0.014858354814350605, 0.002295198617503047, -0.0058388011530041695, -0.0075181103311479092, 0.00023567852622363716, -0.0074576172046363354, 0.015991149470210075, -0.0056710168719291687, 0.0069763637147843838, 0.0091222915798425674, -0.0040082451887428761, -0.0065376241691410542, };
const TfArray<1, int> tensor_dimension2 = { 1, { 20 } };
const ALIGN(16) float tensor_data3[15] = { 0.011665706522762775, -0.044745050370693207, -0.034648310393095016, 0.074417278170585632, -0.056729886680841446, 0.058313380926847458, 0.048848092555999756, -0.014070537872612476, -0.0093139670789241791, 0.034475892782211304, -0.019507000222802162, -0.020159300416707993, -0.02445542998611927, 0.02887650765478611, 0.007803796324878931, };
const TfArray<1, int> tensor_dimension3 = { 1, { 15 } };
const ALIGN(16) float tensor_data4[20*1800] = { 
  -0.017832553014159203, 0.0020543071441352367, -0.016916150227189064, 0.048933412879705429, 0.019200658425688744, 0.020845526829361916, 0.016050046309828758, -0.025411972776055336, 0.0077745909802615643, -0.058497384190559387, -0.0044178352691233158, 0.016409378498792648, -0.058718450367450714, -0.028414361178874969, -0.015554124489426613, 0.042324978858232498, 0.0080837579444050789, 0.051002424210309982, -0.035019736737012863, -0.015843436121940613, 0.046645734459161758, -0.022659864276647568, 0.042475409805774689, 0.0092810513451695442, -0.055287629365921021, 0.023003548383712769, -0.042127061635255814, -0.032349579036235809, -0.03210420161485672, -0.053127948194742203, 0.0078476248309016228, 0.0095853842794895172, 0.017489917576313019, -0.052065536379814148, -0.050753936171531677, 0.023117059841752052, -0.053013555705547333, 0.050858866423368454, -0.0099333645775914192, -0.03598453477025032, 0.027556119486689568, -0.012972327880561352, -0.042613685131072998, -0.0060775792226195335, -0.060172375291585922, 0.040271136909723282, -0.021586840972304344, 0.045805472880601883, -0.045628663152456284, -0.032149583101272583, -0.013253402896225452, -0.058770280331373215, 0.019159557297825813, -0.0068962927907705307, -0.055347558110952377, 0.047215145081281662, 0.051305342465639114, 0.035489004105329514, 0.051796089857816696, 0.033186554908752441, 0.018083395436406136, -0.035376574844121933, -0.0085454341024160385, -0.042974185198545456, -0.00071521219797432423, -0.040849607437849045, -0.0046738847158849239, 0.0095754954963922501, 0.031275153160095215, -0.01147462148219347, 0.016744008287787437, -0.048764050006866455, -0.052339043468236923, -0.0050442996434867382, -0.016384989023208618, -0.028358470648527145, 0.040764056146144867, 0.016779271885752678, -0.0077044898644089699, 0.057379033416509628, 0.0045153256505727768, -0.0068920394405722618, -0.010656066238880157, 0.013722809031605721, -0.020160216838121414, 0.014745167456567287, -0.060433082282543182, -0.012089436873793602, -0.045198675245046616, -0.048133324831724167, 0.011815262958407402, -0.0025001917965710163, -0.03080868162214756, 0.041772324591875076, -0.0095224436372518539, -0.053566530346870422, 0.050362709909677505, 0.017838936299085617, -0.057226601988077164, -0.023910434916615486, 0.0066419481299817562, -0.059025485068559647, 0.0056439726613461971, 0.020234163850545883, -0.031525444239377975, -0.026314996182918549, -0.017908187583088875, 0.00012657487241085619, -0.048497390002012253, -0.017502894625067711, 0.040069300681352615, 0.020294599235057831, 0.0029601240530610085, 0.025731664150953293, -0.028727810829877853, 0.06258014589548111, -0.036805659532546997, 0.012840340845286846, -0.058814384043216705, 0.01435870211571455, 0.017145192250609398, 0.0085468590259552002, 0.0088435020297765732, 0.04618334025144577, -0.055719096213579178, -0.0050014900043606758, 0.027461724355816841, 0.013157525099813938, 0.042895268648862839, -0.012690393254160881, -0.052017878741025925, -0.033353343605995178, 0.048829536885023117, 0.0041191410273313522, 0.030723515897989273, -0.031113641336560249, 0.012700287625193596, 0.050568036735057831, -0.019297430291771889, -0.0062522604130208492, 0.010864054784178734, -0.0040003582835197449, -0.033926695585250854, -0.038929585367441177, -0.038649983704090118, -0.0023038121871650219, -0.01682293601334095, 0.03617602214217186, -0.032652609050273895, -0.03860919177532196, -0.024791207164525986, 0.042786251753568649, -0.026263680309057236, 0.024780003353953362, 0.013610949739813805, -0.024850614368915558, 0.03330632671713829, 0.019764525815844536, -0.05917227640748024, -0.0088951773941516876, 0.022779043763875961, 0.047232732176780701, -0.039806075394153595, -0.013455781154334545, -0.021553365513682365, -0.028478121384978294, -0.041051913052797318, -0.043864112347364426, 0.03153156116604805, 0.035494439303874969, -0.045921359211206436, -0.013619795441627502, -0.0094968127086758614, -0.025084730237722397, -0.015111618675291538, 0.033770397305488586, 0.014268986880779266, 0.024566620588302612, -0.034870143979787827, -0.045691031962633133, -0.011488434858620167, 0.028119299560785294, -0.054208479821681976, -0.035073161125183105, 0.005937124602496624, 0.015715012326836586, -0.02648380771279335, -0.044373616576194763, 0.020292116329073906, -0.0076154489070177078, 0.048490654677152634, -0.044010888785123825, -0.00075077119981870055, 0.062724247574806213, 0.02610437199473381, 0.013410323299467564, -0.030621735379099846, 0.042194440960884094, -0.059024788439273834, 0.0064404690638184547, -0.020104886963963509, 0.030205044895410538, 0.053649537265300751, 0.0099062202498316765, 0.013537037186324596, -0.046583753079175949, 0.022960662841796875, -0.035798791795969009, 0.023342190310359001, 0.030114302411675453, 0.046647738665342331, 0.02477714978158474, -0.026953993365168571, -0.02905721589922905, -0.013221821747720242, -0.017296114936470985, -0.032594494521617889, -0.018326437100768089, -0.018384305760264397, -0.033673420548439026, 0.026995398104190826, 0.035025611519813538, 0.023905962705612183, -0.038537938147783279, 0.037467796355485916, -0.043634451925754547, -0.019742652773857117, -0.039387993514537811, -0.06437867134809494, 0.063129030168056488, -0.016872888430953026, -0.056549329310655594, -0.017012758180499077, -0.024165289476513863, -0.058163508772850037, -0.029275000095367432, 0.045994266867637634, 0.0074542439542710781, 0.048616159707307816, 0.033729102462530136, -0.027047498151659966, -0.046274691820144653, 0.011553595773875713, -0.043050337582826614, 0.042569424957036972, 0.030640577897429466, -0.036598779261112213, -0.0063635548576712608, -0.040941547602415085, 0.0376303531229496, 0.022574327886104584, 0.026245303452014923, -0.024753252044320107, 0.032551579177379608, -0.056747768074274063, -0.036108706146478653, 0.0019522813381627202, 0.024518340826034546, -0.027417464181780815, 0.026599327102303505, -0.0061466023325920105, 0.047412022948265076, -0.032697223126888275, -0.004548913799226284, -0.01456821896135807, 0.05228126049041748, -0.0086430739611387253, 0.039449851959943771, 0.047963660210371017, 0.041485819965600967, 0.021418413147330284, -0.013086337596178055, -0.011133142746984959, -0.010369217954576015, -0.0048676733858883381, -0.076813943684101105, -0.052313681691884995, 0.011672920547425747, -0.026746643707156181, -0.040161766111850739, 0.051367916166782379, -0.047686409205198288, 0.0021362507250159979, -0.029276460409164429, -0.050839163362979889, -0.016072589904069901, -0.03424544632434845, -0.034389380365610123, -0.036078859120607376, -0.0073461933061480522, -0.015056152828037739, 0.050181712955236435, 0.012819631025195122, -0.021959008648991585, 0.04579881951212883, 0.028618352487683296, -0.018585344776511192, -0.0097876768559217453, 0.002341920044273138, 0.035238888114690781, -0.0074091008864343166, 0.036002133041620255, 0.0093880165368318558, -0.060046914964914322, 0.03259364515542984, -0.034942444413900375, 0.043586850166320801, -0.045637153089046478, 0.017679948359727859, 0.01576756127178669, -0.013198395259678364, -0.073011018335819244, -0.011313538067042828, -0.029121601954102516, -0.015390730462968349, -0.010465787723660469, -0.0017752820858731866, -0.049809712916612625, -0.0064064557664096355, -0.061041347682476044, 0.0049948650412261486, -0.035915601998567581, 0.0046255197376012802, -0.0045209042727947235, -0.0044469167478382587, -0.040334634482860565, -0.013570911251008511, 0.0077294162474572659, 0.0012868674239143729, -0.010198919102549553, -0.021800845861434937, 0.023304618895053864, -0.061589706689119339, -0.02236369252204895, -0.0088303340598940849, 0.039822287857532501, -0.017736829817295074, 0.055505808442831039, -0.052924029529094696, -0.049239881336688995, -0.04414716362953186, -0.053910188376903534, 0.011254227720201015, 0.025747230276465416, -0.023969531059265137, 0.013825689442455769, -0.032092761248350143, -0.019806142896413803, 0.009446105919778347, -0.036535058170557022, 0.027307348325848579, 0.04518141970038414, -0.038920722901821136, -0.068138681352138519, 0.010247054509818554, -0.0090741878375411034, -0.022134928032755852, -0.035801000893115997, 0.035565409809350967, -0.013168077915906906, -0.026937518268823624, -0.0061228340491652489, 0.026827637106180191, 0.046779189258813858, 0.028910212218761444, 0.0049800015985965729, -0.037668835371732712, 0.025314589962363243, -0.036466404795646667, 0.049011792987585068, 0.0072550829499959946, -0.02913692407310009, 0.019240478053689003, 0.042065393179655075, -0.0013976201880723238, 0.0097728557884693146, -0.050567008554935455, -0.043585825711488724, 0.010224462486803532, -0.0025913265999406576, 0.024753864854574203, 0.034332696348428726, -0.019794132560491562, 0.011345029808580875, 0.042939785867929459, -0.059463333338499069, -0.026904791593551636, -0.041064836084842682, 0.037584669888019562, -0.034912023693323135, 0.019579293206334114, -0.032866992056369781, -0.058952677994966507, -0.013354248367249966, 0.014822220429778099, -0.059931669384241104, -0.027781626209616661, -0.04515853151679039, 0.010723196901381016, 0.020670125260949135, -0.0083267586305737495, 0.030308859422802925, 0.013589952141046524, 0.038042608648538589, -0.0039011598564684391, -0.047820772975683212, 0.032281160354614258, 0.0048319310881197453, -0.0083664124831557274, -0.010969665832817554, 0.0075552132911980152, 0.044287428259849548, 0.013574187643826008, -0.0058477427810430527, -0.025476898998022079, -0.046169769018888474, 0.054251290857791901, -0.0374327152967453, 0.059805724769830704, -0.066630102694034576, 0.033588830381631851, 0.029037296772003174, -0.049868781119585037, 0.036988545209169388, 0.049228895455598831, -0.032577801495790482, 0.043507389724254608, -0.012130564078688622, -0.055043496191501617, 0.020627008751034737, 0.057376708835363388, 0.030707327648997307, 0.035936474800109863, 0.017726225778460503, -0.051112934947013855, 0.0020996388047933578, 0.055081803351640701, 0.05446162074804306, -0.02822386659681797, 0.016228647902607918, -0.041965298354625702, -0.014321375638246536, -0.011825606226921082, -0.037990167737007141, -0.053222179412841797, -0.0027472940273582935, 0.033986456692218781, 0.013540048152208328, -0.033931739628314972, -0.034783352166414261, 0.044724605977535248, -0.0048271175473928452, 0.020748239010572433, -0.058717060834169388, 0.046721581369638443, -0.0047147166915237904, -0.044746816158294678, -0.038369402289390564, -0.04488377645611763, -0.0080884415656328201, -0.037504412233829498, 0.046097192913293839, -0.0093830330297350883, -0.046897407621145248, 0.024652877822518349, -0.052226047962903976, -0.036339845508337021, -0.0018323266413062811, -0.062893114984035492, 0.0039477800019085407, 0.022546060383319855, -0.033412259072065353, 0.035017672926187515, 0.029981164261698723, -0.039649553596973419, 0.051437646150588989, -0.043636780232191086, -0.013299910351634026, 0.01705452986061573, 0.0091936616227030754, 0.044620130211114883, 0.0060187638737261295, -0.045208301395177841, -0.014933345839381218, 0.042988624423742294, 0.0045018782839179039, -0.061315581202507019, 0.008266436867415905, -0.019878281280398369, -0.013634482398629189, -0.0039799218066036701, -0.029318207874894142, 0.044772405177354813, -0.028297524899244308, -0.018747320398688316, -0.028338650241494179, -0.032484803348779678, 0.045205805450677872, -0.040492631494998932, 0.025398103520274162, -0.05591515451669693, -0.020434536039829254, -0.043341450393199921, -0.0054274499416351318, 0.029362045228481293, -0.00061946077039465308, -0.025230616331100464, 0.031772609800100327, -0.032254483550786972, 0.018901670351624489, 0.054541043937206268, 0.039380323141813278, -0.016983900219202042, -0.015630269423127174, 0.012063445523381233, 0.0067054377868771553, -0.004134385846555233, -0.038355153053998947, -0.03343036025762558, -2.0532939743134193e-05, -0.031627573072910309, 0.011959667317569256, -0.047933194786310196, 0.0065245795994997025, 0.0043342038989067078, 0.031341817229986191, 0.010917473584413528, -0.002632026793435216, 0.0070352503098547459, 0.044048059731721878, -0.046364281326532364, -0.025608276948332787, -0.00021666244720108807, -0.060350250452756882, 0.0049823443405330181, 0.04305746778845787, -0.0088104167953133583, -0.051490291953086853, -0.016198556870222092, -0.061514433473348618, -0.010729451663792133, 0.0043358467519283295, 0.032996214926242828, -0.039167668670415878, 0.027403868734836578, 0.05247855931520462, -0.039958566427230835, -0.016262458637356758, 0.0048243394121527672, -0.020404854789376259, 0.034419212490320206, 0.024792665615677834, -0.064731650054454803, 0.044619400054216385, -0.022275287657976151, -0.016202386468648911, -0.0276054497808218, -0.062008872628211975, 0.03502357006072998, 0.058893162757158279, 0.03130032867193222, 0.0053350175730884075, 0.018658999353647232, -0.036998722702264786, -0.0084230769425630569, 0.045048791915178299, -0.059870697557926178, 0.030786694958806038, -0.059408966451883316, -0.062577076256275177, -0.042416010051965714, -0.014004137367010117, -0.011859766207635403, -0.018002081662416458, 0.018138771876692772, -0.0053749922662973404, 0.034811072051525116, 0.033829882740974426, 0.025898825377225876, 0.022804416716098785, 0.023016296327114105, 0.036047495901584625, -0.050119444727897644, 0.045181185007095337, -0.038016624748706818, -0.02538578025996685, -0.042255263775587082, 0.052295885980129242, 0.011102743446826935, 0.031094612553715706, -0.025394076481461525, 0.033117704093456268, 0.0032606497406959534, -0.032456036657094955, -0.007496918085962534, 0.026643868535757065, -0.0071072550490498543, -0.0095017561689019203, 0.025396935641765594, 0.029559850692749023, 0.014974075369536877, 0.036772925406694412, -0.017961256206035614, 0.027577564120292664, -0.059628207236528397, -0.029375497251749039, -0.059749748557806015, -0.0071759838610887527, 0.029512681066989899, 0.021712236106395721, 0.026078604161739349, 0.043101027607917786, -0.063229382038116455, 0.05347726121544838, 0.0010943838860839605, -0.0096076279878616333, 0.016816101968288422, 0.0034316752571612597, 0.0015510264784097672, -0.0088525442406535149, -0.039849165827035904, -0.049150764942169189, -0.015102367848157883, -0.02493441104888916, 0.0062919077463448048, 0.031572476029396057, 0.043049298226833344, -0.030607201159000397, -0.029355194419622421, 0.0012877248227596283, 0.034395597875118256, 0.028847558423876762, -0.027694273740053177, 0.05873582512140274, -0.047022361308336258, 0.0097865518182516098, 0.04107307642698288, 0.0058009014464914799, -0.055463507771492004, -0.0049642501398921013, -0.010621720924973488, 0.042496230453252792, 9.9328019132371992e-05, 0.0021509076468646526, 0.019179409369826317, -0.051787704229354858, -0.010016371496021748, -0.066299125552177429, -0.0058737033978104591, 0.049389220774173737, 0.0061456090770661831, 0.045133661478757858, -0.045736558735370636, 0.011906855739653111, -0.0056139486841857433, 0.04288075864315033, -0.057377662509679794, -0.021090157330036163, 0.041193827986717224, -0.020742049440741539, -0.032406456768512726, -0.010864706709980965, -0.029884712770581245, 0.019333824515342712, -0.015622427687048912, 0.010063125751912594, 0.04433935135602951, -0.013166914694011211, 0.043247774243354797, 0.055126428604125977, 0.014358981512486935, -0.0065843961201608181, -0.025062715634703636, 0.038563475012779236, 0.016314251348376274, 0.0017520028632134199, 0.037595834583044052, 0.001234803581610322, -0.040483184158802032, -0.060497507452964783, -0.032858312129974365, 0.061109937727451324, -0.022697031497955322, 0.040328036993741989, -0.019685098901391029, 0.061290215700864792, 0.0012866925681009889, -0.054244954138994217, 0.0028294823132455349, -0.04473770409822464, -0.0015338776865974069, 0.036070492118597031, -0.028130719438195229, 0.027023773640394211, -0.029446935281157494, -0.00026511296164244413, 0.00080680422252044082, -0.023591781035065651, -0.033953055739402771, 0.024522269144654274, 0.030842775478959084, 0.022462649270892143, 0.039960999041795731, -0.023149298503994942, -0.050130471587181091, -0.041222549974918365, 0.013001657091081142, 0.054031264036893845, 0.038152031600475311, 0.01893291063606739, 0.031370222568511963, -0.0064244004897773266, 0.0010019846959039569, -0.0099612567573785782, 0.036835886538028717, -0.043427366763353348, -0.036252740770578384, 0.028328945860266685, -0.020110130310058594, -0.0088894572108983994, -0.072246864438056946, 0.041116528213024139, 0.002338063670322299, 0.013269346207380295, -0.047921370714902878, -0.027409991249442101, 0.002165898447856307, 0.00086262577679008245, -0.019367128610610962, 0.038686554878950119, -0.030498649924993515, 0.058105926960706711, 0.0078122983686625957, 0.044868297874927521, 0.013275260105729103, 0.0048602912575006485, 0.053443115204572678, -0.0041086198762059212, 0.016760265454649925, 0.02994854561984539, 0.03935551643371582, -0.034249775111675262, -0.026185492053627968, -0.014030200429260731, 0.00030632800189778209, 0.0022198338992893696, 0.019394587725400925, -0.024586275219917297, -0.042092416435480118, 0.010600032284855843, -0.052464663982391357, -0.0053049847483634949, -0.014672978781163692, -0.020585406571626663, -0.034088533371686935, -0.062836542725563049, -0.047059200704097748, -0.0068708984181284904, 0.019219974055886269, -0.040369659662246704, -0.04172075167298317, -0.040309201925992966, 0.039240766316652298, -0.0062407120130956173, -0.02533542737364769, -0.0035104588605463505, -0.037948019802570343, 0.039138723164796829, -0.045116011053323746, -0.029199142009019852, 0.050210259854793549, -0.024238254874944687, 0.012110006064176559, 5.1468678066157736e-06, 0.032424386590719223, 0.019678913056850433, -0.038263019174337387, -0.0078626982867717743, 0.047997578978538513, -0.023881139233708382, -0.032365370541810989, 0.037758532911539078, -0.0016762440791353583, 0.03383781760931015, -0.043948862701654434, 0.0076101128943264484, -0.0080947959795594215, -0.023440932855010033, -0.044948514550924301, 0.03116314485669136, -0.040904540568590164, -0.0076653240248560905, -0.0076491106301546097, -0.036524239927530289, -0.0030628922395408154, 0.0079821394756436348, 0.031872730702161789, -0.02220878005027771, 0.0077041885815560818, 0.017021743580698967, -0.058321326971054077, -0.0057485504075884819, -0.025946034118533134, 0.027240712195634842, -0.014823351055383682, 0.059491768479347229, 0.052953746169805527, -0.012683527544140816, -0.014952936209738255, -0.038916636258363724, -0.051144078373908997, -0.007533589843660593, -0.044461149722337723, 0.043907731771469116, 0.049802366644144058, 0.045906577259302139, -0.054163575172424316, 0.007133102510124445, 0.021915212273597717, 0.0034691707696765661, 0.04184543713927269, -0.031672112643718719, 0.049675848335027695, -0.0030294049065560102, 0.00081217702245339751, 0.063797712326049805, 0.015162049792706966, -0.0078995274379849434, 0.018052134662866592, 0.04347224161028862, 0.03091900609433651, -0.034344382584095001, 0.031737834215164185, 0.027253845706582069, -0.020577462390065193, 0.0081591168418526649, 0.037932690232992172, -0.036688990890979767, -0.05927208811044693, -0.044809926301240921, -0.057633068412542343, -0.033994771540164948, 0.03319956362247467, 0.014907757751643658, 0.010502755641937256, -0.0035770384129136801, -0.052998773753643036, 0.0078682713210582733, -0.010930691845715046, -0.0020733322016894817, 0.0042758411727845669, 0.040282532572746277, 0.0034700494725257158, 0.028045248240232468, -0.038530021905899048, -0.024979528039693832, 0.028998222202062607, 0.00099563843104988337, 0.00096351973479613662, -0.015690889209508896, 0.0047240001149475574, -0.030990162864327431, 0.0069529097527265549, 0.02033691294491291, -0.050456780940294266, 0.007333539891988039, -0.03038337454199791, -0.0081962626427412033, 0.03143078088760376, 0.030946997925639153, 0.0043824785389006138, -0.031908381730318069, -0.010066939517855644, 0.0087467432022094727, -0.049429915845394135, -0.044287305325269699, -0.012803421355783939, -0.045498006045818329, 0.0010448293760418892, 0.04481227695941925, 0.013999671675264835, 0.038038507103919983, -0.010539444163441658, 0.054151888936758041, -0.017594033852219582, 0.036238901317119598, 0.0019707772880792618, -0.028735203668475151, 0.013591441325843334, -0.023249851539731026, -0.023938367143273354, -0.017457963898777962, 0.010866222903132439, 0.027701551094651222, 0.027658602222800255, -0.038433931767940521, -0.029326323419809341, 0.035606164485216141, 0.012449014931917191, 0.0095892678946256638, -0.072088547050952911, 0.061268139630556107, -0.0023594861850142479, -0.021575247868895531, -0.00015704227553214878, -0.058050908148288727, -0.023988140746951103, -0.016033954918384552, 0.027963809669017792, 0.021329585462808609, 0.025584256276488304, -0.039436664432287216, 0.027224794030189514, -0.018691593781113625, -0.017299516126513481, 0.059940837323665619, -0.039310358464717865, 0.025611922144889832, -0.031982876360416412, -0.0012533045373857021, 0.026016771793365479, 0.00080279092071577907, 0.024189641699194908, 0.0024073258973658085, 0.012242267839610577, 0.018979236483573914, -0.069738946855068207, -0.024679923430085182, 0.053472347557544708, 0.032966479659080505, -0.010648122057318687, -0.018758712336421013, 0.022555407136678696, 0.026422757655382156, 0.0099110566079616547, -0.053818315267562866, -0.055139362812042236, 0.060693465173244476, 0.035245239734649658, 0.006846647709608078, 0.021254956722259521, -0.030522773042321205, 0.019435528665781021, -0.029545612633228302, 0.040229856967926025, -0.040244907140731812, -0.011128648184239864, 0.033705968409776688, 0.021633617579936981, -0.026070026680827141, 0.03295053169131279, -0.028810217976570129, 0.046062804758548737, -0.037310868501663208, -0.013556660152971745, -0.034659713506698608, -0.056322239339351654, -0.038149844855070114, -0.056413792073726654, -0.021362092345952988, 0.0085773169994354248, -0.01440997701138258, -0.032815095037221909, 0.026489950716495514, -0.010793360881507397, -0.014768895693123341, -0.048218283802270889, 0.040963597595691681, -0.019461117684841156, -0.042000181972980499, -0.061283610761165619, 0.035656418651342392, -0.013960907235741615, -0.008095751516520977, -0.059749491512775421, -0.031984414905309677, 0.016206510365009308, -0.0022068431135267019, 0.052139423787593842, -0.031896326690912247, -0.03944237157702446, -0.043482724577188492, -0.054590541869401932, 0.031814370304346085, -0.00088681851048022509, 0.049273595213890076, -0.045631293207406998, -0.0043916455470025539, -0.011792093515396118, -0.044688351452350616, -0.0025309443008154631, -0.039742045104503632, -0.029693331569433212, 0.06455191969871521, -0.054370559751987457, -0.042604845017194748, -0.025035165250301361, -0.042844243347644806, 0.0027547033969312906, 0.036890067160129547, -0.037756536155939102, 0.037419524043798447, 0.045120671391487122, -0.038886293768882751, -0.054701965302228928, -0.040872767567634583, 0.022273451089859009, 0.01107929740101099, -0.0016503217630088329, -0.0094865541905164719, -0.0093102371320128441, -0.040389232337474823, -0.019171237945556641, 0.048076797276735306, -0.025286499410867691, 0.058365784585475922, 0.040171429514884949, 0.016157623380422592, -0.012555773369967937, 0.015815708786249161, 0.039671469479799271, -0.013848060742020607, 0.02570241317152977, 0.034482583403587341, -0.056389644742012024, 0.032736156135797501, 0.0091766808182001114, 0.053098488599061966, 0.016539925709366798, 0.011607827618718147, 0.035173166543245316, -0.045290358364582062, -0.040539644658565521, 0.0030407337471842766, -0.027816109359264374, -0.042547207325696945, -0.026004616171121597, -0.009111844003200531, 0.020506018772721291, -0.0038183671422302723, -0.051435522735118866, 0.020051660016179085, -0.046858508139848709, -0.0056198439560830593, -0.071011073887348175, 0.055736858397722244, -0.06114303320646286, 0.032894060015678406, -0.0015306894201785326, 0.0015739394584670663, 0.026897111907601357, 0.060744546353816986, -0.049390941858291626, -0.0091792410239577293, 0.042331647127866745, 0.010245326906442642, 0.021774664521217346, 0.027705000713467598, -0.026025751605629921, 0.028793266043066978, -0.026594530791044235, 0.045706391334533691, 0.019721504300832748, 0.051413584500551224, -0.022865818813443184, 0.008182670921087265, -0.0469084233045578, -0.0052415053360164165, 0.017039099708199501, -0.061843592673540115, -0.068384885787963867, -0.047682210803031921, -0.026874713599681854, 0.046337883919477463, 0.038555394858121872, -0.054522115737199783, 0.036165047436952591, -0.048951961100101471, -0.00074447254883125424, -0.012626826763153076, -0.0069132326170802116, 0.015751216560602188, -0.0021792752668261528, -0.01303033996373415, 0.0088648144155740738, 0.023213237524032593, -0.054160367697477341, 0.0081644393503665924, -0.019460819661617279, -0.01337567251175642, -0.011471488513052464, -0.010534736327826977, 0.041023831814527512, 0.066809646785259247, -0.033161185681819916, -0.020622894167900085, -0.0033627839293330908, -0.037200290709733963, 0.038104865700006485, -0.030783578753471375, -0.041237588971853256, 0.044327616691589355, -0.076831519603729248, -0.03252033144235611, -0.024719331413507462, -0.054237827658653259, -0.024210371077060699, -0.013259097933769226, 0.019043955951929092, -0.011869139969348907, -0.038370992988348007, 0.0010003477800637484, -0.025024740025401115, -0.051402028650045395, 0.038916118443012238, -0.050215236842632294, -0.052061475813388824, 7.2022929089143872e-05, 0.033809643238782883, 0.0086023984476923943, -0.064196027815341949, -0.017692897468805313, -0.036753352731466293, -0.038345105946063995, -0.036203529685735703, -0.015129447914659977, 0.048224031925201416, -0.011221343651413918, -0.056822288781404495, 0.043702907860279083, -0.04524051770567894, 0.0046895244158804417, -0.034036681056022644, -0.047241643071174622, 0.039215322583913803, 0.006489521823823452, -0.030103564262390137, -0.011522447690367699, 0.013608495704829693, -0.043251071125268936, -0.045211613178253174, -0.019283780828118324, -0.016394041478633881, 0.042500093579292297, -0.043655749410390854, 0.052301410585641861, -0.038344759494066238, 0.047137007117271423, -0.024333745241165161, -0.05141187459230423, -0.052904095500707626, 0.05587608739733696, -0.072095997631549835, -0.046907294541597366, 0.012163926847279072, -0.0062783733010292053, 0.00067988852970302105, -0.0259066391736269, 0.051896676421165466, -0.031564120203256607, 0.022660223767161369, -0.048202194273471832, -0.042678061872720718, 0.030332149937748909, 0.028250884264707565, -0.0061634383164346218, -0.041536848992109299, -0.0026888607535511255, -0.0038138609379529953, 0.03441186249256134, 0.021264895796775818, 0.048824861645698547, 0.0080297486856579781, 0.015668453648686409, -0.049184992909431458, 0.011266261339187622, -0.0035245451144874096, -0.054263651371002197, 0.0021585007198154926, 0.02330954372882843, 0.011935225687921047, 0.046043585985898972, 0.019161922857165337, 0.045275334268808365, 0.012722357176244259, -0.0080202361568808556, 0.044452186673879623, -0.055695567280054092, -0.034894797950983047, -0.041900165379047394, -0.018083453178405762, 0.039870992302894592, -0.049564231187105179, 0.055485807359218597, -0.024372579529881477, 0.051697041839361191, 0.011662435717880726, 0.0081912335008382797, -0.039091981947422028, 0.051286701112985611, -0.049930036067962646, 0.038293927907943726, 0.034108418971300125, -0.01471364963799715, -0.076153859496116638, 0.050043497234582901, -0.021193383261561394, -0.027844130992889404, -0.021575510501861572, 0.029951652511954308, -0.020756110548973083, 0.011214650236070156, -0.053954806178808212, 0.029289958998560905, -0.010410566814243793, -0.032889969646930695, -0.022927837446331978, 0.046391244977712631, -0.043046209961175919, 0.0095756324008107185, -0.035873651504516602, -0.0081024747341871262, 0.0083845248445868492, -0.0035327884834259748, -0.075029738247394562, 0.0098546808585524559, -0.053148545324802399, -0.0087744612246751785, 0.033253129571676254, 0.030873006209731102, -0.008608376607298851, 0.034927371889352798, 0.013824188150465488, 0.02626313641667366, -0.030402293428778648, 0.036394830793142319, -0.051445476710796356, 0.029269570484757423, -0.025329481810331345, 0.039916135370731354, -0.052901383489370346, -0.040286105126142502, -0.0011956183006986976, 0.0059743248857557774, -0.014210907742381096, 0.030949722975492477, 0.00369496108032763, -0.055831912904977798, 0.0079645067453384399, 0.03930504247546196, -0.028307775035500526, 0.048089977353811264, -0.031945224851369858, 0.027035467326641083, -0.044224444776773453, -0.017287582159042358, 0.0180994663387537, -0.028183570131659508, -0.0068924413062632084, -0.016836270689964294, 0.012418486177921295, 0.020769130438566208, -0.034330572932958603, 0.048073127865791321, -0.04766136035323143, 0.024579163640737534, -0.04662507027387619, 0.043376244604587555, 0.013762000948190689, -0.010356680490076542, 0.026626240462064743, 0.0094504514709115028, 0.01351628266274929, 0.051727764308452606, -0.05778329074382782, -0.053940322250127792, -0.029478888958692551, -0.012167362496256828, 0.044664353132247925, -0.019374541938304901, 0.024238467216491699, -0.02095337025821209, 0.0014288706006482244, 0.0033624728675931692, -0.031042261049151421, -0.019209658727049828, -0.069768838584423065, -0.0085536325350403786, 0.0074390452355146408, -0.00087756477296352386, 0.0032028844580054283, -0.011280802078545094, 0.039478104561567307, 0.0067243296653032303, 0.025237495079636574, -0.038815762847661972, -0.0048094717785716057, 0.054914835840463638, -0.030643139034509659, 0.027696004137396812, 0.034486711025238037, -0.0049463077448308468, 0.013257504440844059, 0.044636249542236328, 0.02086273767054081, 0.055302347987890244, -0.052430339157581329, -0.03002328984439373, -0.052277538925409317, 0.031148547306656837, -0.055981963872909546, 0.020599042996764183, -0.055504374206066132, 0.017665242776274681, 0.027963235974311829, -0.01090093981474638, -0.0081374794244766235, -0.0044646584428846836, 0.018882241100072861, -0.030503550544381142, -0.020449761301279068, -0.045520048588514328, -0.065288685262203217, 0.016776937991380692, -0.039605893194675446, -0.049154654145240784, 0.017871303483843803, 0.021208999678492546, -0.057628355920314789, 0.010145636275410652, 0.027582518756389618, -0.018241414800286293, -0.02138608880341053, 0.053310569375753403, 0.011745220981538296, -0.029967734590172768, 0.012256448157131672, -0.035019524395465851, -0.015151629224419594, 0.0057487804442644119, 0.010796564631164074, 0.01582442969083786, 0.017175218090415001, 0.020612359046936035, 0.040797002613544464, -0.044722065329551697, 0.033307317644357681, -0.028261808678507805, -0.037105239927768707, 0.015665128827095032, -0.0050459029152989388, 0.037342973053455353, 0.0003342106647323817, 0.0031342434231191874, -0.0089348359033465385, -0.0049852048978209496, 0.05499141663312912, -0.0044152014888823032, -0.020726250484585762, 0.0061864047311246395, 0.0011985647724941373, -0.016905760392546654, -0.050324916839599609, 0.037884104996919632, 0.0013255568919703364, 0.036713019013404846, -0.001131224911659956, -0.02025538869202137, 0.032376505434513092, -0.047593750059604645, -0.061500079929828644, 0.046481780707836151, 0.0092990947887301445, -0.025687959045171738, 0.043723437935113907, -0.042523033916950226, 0.014956842176616192, -0.029134562239050865, -0.051848802715539932, -0.010405687615275383, 0.040377743542194366, -0.020667644217610359, -0.0024514896795153618, 0.036395560950040817, -0.019878897815942764, -0.032672088593244553, 0.0088592758402228355, -0.0027970022056251764, -0.02197684533894062, 0.012367281131446362, 0.045508973300457001, -0.051292542368173599, 0.036236796528100967, -0.069052219390869141, -0.027214087545871735, 0.030870934948325157, -0.055072281509637833, 0.035377100110054016, -0.05647546797990799, -0.03839324414730072, 0.025293698534369469, 0.0058415024541318417, -0.020464085042476654, -0.048156008124351501, 0.00014706664660479873, 0.039062179625034332, -0.011874218471348286, -0.040234927088022232, -0.0034501382615417242, -0.038618672639131546, 0.024482108652591705, 0.035604275763034821, -0.010236554779112339, 0.049279384315013885, -0.048085324466228485, 0.0079101361334323883, 0.020117402076721191, 0.023376438766717911, -0.033804941922426224, 0.018146907910704613, -0.016160069033503532, -0.028835147619247437, -0.014132502488791943, 0.056545950472354889, 0.011392880231142044, -0.019602686166763306, -0.046781569719314575, -0.020979791879653931, 0.029088323935866356, -0.01753685437142849, -0.047841891646385193, -0.021415263414382935, 0.044782616198062897, -0.047725971788167953, 0.025009689852595329, -0.059998918324708939, -0.047903183847665787, -0.051912266761064529, -0.0061842054128646851, -0.013821911066770554, 0.015582581050693989, 0.0021931200753897429, 0.0086913472041487694, -0.050570923835039139, 0.0034373265225440264, 0.044217400252819061, -0.042260799556970596, -0.013021623715758324, 0.025657888501882553, -0.046785458922386169, -0.030619818717241287, -0.034044224768877029, 0.013717274181544781, -0.030890842899680138, -0.042922638356685638, 0.0037562204524874687, 0.0051024649292230606, -0.0074797202832996845, -0.060819469392299652, -0.033281672745943069, 0.02821577712893486, -0.037735026329755783, 0.010812093503773212, -0.0084259724244475365, -0.020774271339178085, 0.026759924367070198, -0.0093929087743163109, 0.03932841494679451, -0.021606713533401489, 0.027983391657471657, -0.046623621135950089, -0.037539031356573105, -0.0037742364220321178, -0.054577823728322983, 0.022535579279065132, 0.02917805127799511, -0.039986401796340942, -0.014075266197323799, 0.051001612097024918, -0.039570722728967667, 0.028966652229428291, 0.0062432154081761837, 0.036192573606967926, -0.024411141872406006, -0.052763517946004868, 0.027035661041736603, 0.020727358758449554, -0.0342298224568367, -0.061578910797834396, 0.0013601682148873806, 0.026927681639790535, 0.020956026390194893, -0.042238812893629074, 0.0033823114354163408, -0.013592066243290901, 0.056373707950115204, 0.034260716289281845, -0.026366839185357094, 0.0021055119577795267, 0.047664817422628403, -0.045315291732549667, 0.035656649619340897, 0.014909283258020878, -0.02262548916041851, -0.014771110378205776, -0.025068800896406174, 0.046540696173906326, 0.046507228165864944, 0.016670593991875648, -0.052239406853914261, 0.0098349368199706078, -0.031706575304269791, -0.0026303313206881285, 0.0055800988338887691, -0.026736486703157425, 0.051817137748003006, -0.024241060018539429, -0.05302734300494194, -0.038365684449672699, 0.0085048079490661621, 0.025479210540652275, 0.050308462232351303, -0.036566723138093948, -0.016210462898015976, 0.031890567392110825, -0.032674945890903473, 0.046656984835863113, 0.049454580992460251, -0.049529161304235458, -0.003521449863910675, -0.035487689077854156, -0.016965728253126144, 0.038028448820114136, -0.027272513136267662, -0.0046054455451667309, -0.04199884831905365, -0.012711468152701855, -0.021374328061938286, 0.0084176100790500641, -0.0093070445582270622, 0.0054206452332437038, 0.038689076900482178, 0.022500505670905113, -0.053449895232915878, 0.018202424049377441, -0.05246589332818985, -0.00039872864726930857, -0.046937398612499237, -0.012985073961317539, 0.031898360699415207, -0.012444163672626019, 0.04026452824473381, 0.044575203210115433, 0.012227483093738556, 0.051530379801988602, 0.038961306214332581, 0.041523352265357971, 0.039069879800081253, -0.0026050410233438015, 0.019774319604039192, -0.058958884328603745, 0.062928333878517151, -0.0070665003731846809, -0.0081377746537327766, -0.021307293325662613, 0.018304003402590752, 0.01731996051967144, 0.0050480766221880913, 0.044316753745079041, -0.051002603024244308, 0.019572677090764046, -0.00056591740576550364, -0.019562423229217529, -0.021268108859658241, -0.029641648754477501, -0.016752434894442558, -0.011966445483267307, -0.048263296484947205, 0.018385538831353188, -0.0029175651725381613, -0.045414529740810394, -0.011849566362798214, 0.0079049048945307732, -0.049302633851766586, -0.067844085395336151, -0.016818830743432045, -0.035492189228534698, 0.002882952569052577, 0.0063603459857404232, -0.049267403781414032, 0.036280911415815353, 0.047499407082796097, -0.006933990865945816, 0.053573153913021088, -0.0072065554559230804, -0.052619833499193192, -0.034754633903503418, 0.057936783879995346, -0.043298311531543732, 0.0045159468427300453, 0.038959003984928131, -0.0062452987767755985, 0.01083303801715374, 0.064005345106124878, -0.04444272443652153, 0.0099495062604546547, -0.061899896711111069, -0.00090349133824929595, 0.030865581706166267, 0.02879265695810318, -0.023034036159515381, 0.049840066581964493, 0.015844343230128288, -0.0096105681732296944, -0.053045976907014847, 0.024928543716669083, 0.032220851629972458, 0.0082943374291062355, 0.055529732257127762, -0.017479343339800835, -0.07262701541185379, 0.013293315656483173, -0.017032189294695854, 0.03167879581451416, 0.022759906947612762, 0.029753798618912697, -0.030941665172576904, 0.0033392282202839851, -0.019013971090316772, 0.011099513620138168, -0.038959361612796783, 0.047120746225118637, 0.026308394968509674, 0.063782051205635071, -0.027649184688925743, -0.033345717936754227, 0.013345318846404552, -0.037701897323131561, 0.031542155891656876, 0.023983607068657875, -0.048776336014270782, 0.056995287537574768, -0.020679134875535965, -0.041355263441801071, 0.048808299005031586, 0.025736432522535324, -0.029891135171055794, 0.039454743266105652, 0.046338796615600586, -0.023438749834895134, 0.027830036357045174, -0.038208000361919403, -0.035791274160146713, 0.0025529717095196247, -0.020152915269136429, -0.024443896487355232, -0.060012474656105042, 0.011407118290662766, -0.021628221496939659, 0.03992651030421257, -0.0048342123627662659, -0.058266323059797287, -0.052739851176738739, 0.020401766523718834, 0.021763715893030167, 0.013005847111344337, -0.025768624618649483, 0.049538683146238327, 0.029881427064538002, -0.032232243567705154, 0.043450955301523209, -0.0047840368933975697, -0.018518727272748947, 0.054837547242641449, -0.03508194163441658, -0.01950664259493351, 0.0066601685248315334, 0.049624588340520859, 0.004937139805406332, -0.048229988664388657, 0.012830895371735096, 0.0063004288822412491, -0.0022672978229820728, -0.0047491011209785938, -0.026051424443721771, 0.034385133534669876, -0.0055554625578224659, -0.027867423370480537, -0.0060266954824328423, -0.037328287959098816, 0.0293164923787117, 0.058841165155172348, -0.022268345579504967, -0.02316165529191494, -0.039815466850996017, -0.026336712762713432, -0.061890095472335815, 0.043573621660470963, 0.043802529573440552, 0.065878048539161682, -0.061843544244766235, 0.0028571835719048977, 0.036180682480335236, 0.053400248289108276, -0.020623007789254189, 0.046761192381381989, 0.025570161640644073, -0.05212835967540741, 0.024746321141719818, -0.027871064841747284, -0.038589660078287125, 0.014395728707313538, -0.05267966166138649, 0.028178397566080093, -0.0054599237628281116, -0.039754427969455719, 0.024934476241469383, -0.038327965885400772, -0.0678558349609375, -0.057960826903581619, -0.016675354912877083, -0.046105027198791504, -0.035250693559646606, 0.021269185468554497, 0.025370337069034576, -0.0482742078602314, 0.013280022889375687, 0.05453282967209816, 0.018150445073843002, 0.063489332795143127, -0.060406461358070374, 0.018984923139214516, -0.023859577253460884, -0.041894983500242233, 0.040082637220621109, 0.03641216829419136, 0.033318635076284409, 0.015618870034813881, -0.0473015196621418, -0.032689675688743591, -0.050113197416067123, 0.02350311353802681, 0.00063105043955147266, -0.056954581290483475, 0.054149392992258072, 0.047684792429208755, -0.01534766610711813, 0.017809506505727768, 0.007954917848110199, 0.036878019571304321, -0.052420392632484436, 0.0083416681736707687, -0.024263087660074234, 0.029388070106506348, 0.0019987609703093767, -0.043623797595500946, 0.029970124363899231, 0.060081377625465393, 0.047918882220983505, -0.029336301609873772, 0.034297402948141098, -0.0020780754275619984, 0.030834434553980827, 0.01070619560778141, 0.016500430181622505, 0.057709045708179474, -0.0052076485008001328, -0.04817083477973938, -0.0076369224116206169, -0.032143097370862961, 0.026526054367423058, 0.044742751866579056, -0.057566411793231964, -0.017306871712207794, -0.026681497693061829, -0.04047800600528717, -0.037235446274280548, -0.033537156879901886, 0.021915925666689873, 0.053462184965610504, 0.0047835144214332104, -0.002889503026381135, 0.0023386639077216387, 0.055090215057134628, 0.0052521862089633942, 0.0076677934266626835, 0.0056605343706905842, -0.012184705585241318, 0.039064288139343262, 0.034789629280567169, -0.049860171973705292, -0.031379938125610352, 0.031963776797056198, -0.053056616336107254, -0.029552076011896133, 0.0073976004496216774, -0.0023139333352446556, -0.031048441305756569, 0.027673995122313499, -0.019637517631053925, 
  -0.064937472343444824, -0.018165478482842445, 0.039552319794893265, 0.035615731030702591, -0.035853303968906403, -0.023475755006074905, 0.00039923287113197148, 0.046281754970550537, -0.0026559748221188784, 0.039614643901586533, -0.05927494540810585, 0.048305314034223557, 0.016690652817487717, 0.0048495931550860405, 0.043692458420991898, -0.019808117300271988, 0.072758495807647705, 0.053668681532144547, 0.0216862503439188, -0.033698223531246185, 0.0036660237237811089, -0.0084784803912043571, 0.073146216571331024, 0.0059866071678698063, 0.0065435641445219517, 0.03409392386674881, 0.004575314000248909, 0.036480557173490524, 0.014582663774490356, -0.037668686360120773, 0.0041448492556810379, 0.057325921952724457, 0.064668774604797363, 0.049905505031347275, 0.053662262856960297, -0.0048338794149458408, -0.054490309208631516, -0.021197808906435966, 0.0077709704637527466, -0.0081514483317732811, -0.041536740958690643, -0.059363454580307007, 0.036757431924343109, 0.069721199572086334, 0.0054867253638803959, -0.021515719592571259, 0.01494782418012619, -0.0061952001415193081, 0.018791859969496727, -0.0044354679994285107, -0.042996343225240707, 0.0058879554271697998, 0.032160747796297073, 0.00090901536168530583, -0.039803504943847656, -0.055318094789981842, -0.040921095758676529, 0.042419183999300003, 0.068426288664340973, -0.030234605073928833, -0.028900595381855965, 0.046747766435146332, -0.0086381034925580025, -0.013168630190193653, 0.0082614421844482422, 0.0053491913713514805, 0.058636017143726349, -0.051559440791606903, 0.047251246869564056, -0.02010083943605423, 0.066734768450260162, -0.027593443170189857, 0.023816222324967384, -0.019920133054256439, 0.001440844964236021, 0.051735147833824158, -0.037473469972610474, -0.067014023661613464, -0.022058602422475815, 0.080678224563598633, -0.034781027585268021, -0.056632019579410553, -0.05292019248008728, 0.030423698946833611, 0.041325859725475311, -0.00015473684470634907, -0.0021538075525313616, -0.035054925829172134, 0.054202564060688019, 0.0066342833451926708, -0.015844577923417091, 0.019639432430267334, 0.064314864575862885, 0.01257664430886507, 0.029815066605806351, 0.043128222227096558, -0.046403057873249054, -0.03940935805439949, 0.024369891732931137, -0.051239550113677979, 0.040803421288728714, 0.058421507477760315, 0.015580476261675358, -0.0053368336521089077, -0.022518636658787727, 0.024558335542678833, 0.075644508004188538, -0.032897129654884338, -0.019825918599963188, -0.02600904181599617, -0.022153543308377266, -0.057762004435062408, 0.033920146524906158, -0.02511758916079998, -0.032417174428701401, 0.079698823392391205, -0.012557052075862885, 0.010785973630845547, -0.057741239666938782, -0.015213980339467525, 0.023847045376896858, -0.058599837124347687, -0.0076724686659872532, -0.027291208505630493, 0.082794606685638428, 0.012137948535382748, -0.04078255221247673, 0.021022051572799683, -0.031215503811836243, 0.053480386734008789, 0.024357082322239876, -0.009210675023496151, 0.011616845615208149, -0.013137101195752621, 0.069149069488048553, 0.035614341497421265, 0.0021715338807553053, -0.012145521119236946, 0.0034427004866302013, 0.033916525542736053, -0.036893423646688461, 0.009592084214091301, 0.049318950623273849, -0.02034991979598999, -0.0079853003844618797, 0.020783383399248123, 0.030138406902551651, 0.0011187456548213959, -0.046481378376483917, -0.077102512121200562, -0.040262583643198013, 0.010270370170474052, -0.052553568035364151, -0.027263136580586433, -0.021207060664892197, 0.060335498303174973, 0.035667896270751953, 0.044706795364618301, -0.027328180149197578, -0.023736901581287384, 0.023501845076680183, -0.030811034142971039, -0.013827229849994183, -0.028631268069148064, -0.029489854350686073, -0.011413019150495529, 0.0064705442637205124, 0.022471614181995392, -0.078114531934261322, -0.01245314534753561, 0.0053724544122815132, -0.03140636533498764, 0.062199313193559647, -0.0094661368057131767, -0.00087385927326977253, 0.033670868724584579, 0.047863394021987915, -0.014367913827300072, 0.015093328431248665, -0.023361416533589363, -0.055708110332489014, 0.0018087743083015084, 0.015822021290659904, -0.02162700891494751, -0.025322526693344116, 0.0045121745206415653, -0.015818176791071892, 0.019255366176366806, 0.0079673537984490395, 0.045236606150865555, 0.07119133323431015, 0.042933512479066849, 0.034082688391208649, 0.041295826435089111, 0.0053481957875192165, 0.020165111869573593, 0.009129832498729229, -0.038723856210708618, -0.099916443228721619, 0.044962052255868912, 0.059024222195148468, -0.0052629178389906883, -0.016455521807074547, 0.025613477453589439, -0.066198460757732391, 0.0065142465755343437, 0.048410087823867798, 0.060145232826471329, 0.052849538624286652, 0.055855199694633484, -0.026960963383316994, -0.01527655404061079, 0.017952919006347656, 0.0036475828383117914, -0.01309348177164793, 0.020367801189422607, 0.0030299602076411247, 0.011451140977442265, -0.0076106884516775608, -0.073910050094127655, -0.026651306077837944, -0.083540834486484528, 0.011268302798271179, 0.0047091343440115452, -0.0085121206939220428, 0.036522876471281052, 0.026329271495342255, 0.0013258690014481544, -0.037737540900707245, -0.054305955767631531, 0.07141876220703125, 0.049087200313806534, 0.065450415015220642, 0.036846701055765152, -0.091078594326972961, -0.036485742777585983, 0.023273589089512825, 0.011751974001526833, -0.00048967084148898721, 0.025518886744976044, -0.089209116995334625, 0.03337782621383667, 0.030018934980034828, 0.074302166700363159, -0.0070094522088766098, 0.016599180176854134, -0.0017955428920686245, -0.048585105687379837, 0.036078043282032013, 0.057962145656347275, 0.027166198939085007, -0.015042039565742016, -0.010150703601539135, 0.0086946161463856697, 0.052606016397476196, -0.0013759573921561241, 0.0091362623497843742, -0.040982257574796677, -0.056585010141134262, 0.061598964035511017, -0.083256170153617859, -0.035968329757452011, 0.082810796797275543, -0.048694372177124023, 0.020489893853664398, -0.024863623082637787, -0.03872811421751976, -0.0068247565068304539, 0.046926714479923248, -0.030157433822751045, -0.085790403187274933, -0.018116967752575874, 0.053492754697799683, 0.041864357888698578, 0.038825139403343201, -0.02014976367354393, -0.00085517641855403781, 0.0026046873535960913, 0.036733090877532959, 0.012477011419832706, -0.060439944267272949, -0.00036915589589625597, 0.010675226338207722, 0.015385416336357594, 0.035338684916496277, -0.0041195000521838665, 0.0017972749192267656, -0.033451933413743973, 0.040571290999650955, -0.049444232136011124, 0.0046437550336122513, -0.024876080453395844, 0.0091803343966603279, -0.013071627356112003, -0.027540905401110649, 0.029847275465726852, -0.040850292891263962, -0.016625553369522095, 0.051944680511951447, -0.014196235686540604, 0.038190048187971115, -0.00274889194406569, -0.0045763663947582245, -0.0026507219299674034, -0.015652306377887726, 0.017497429624199867, -0.077454879879951477, -0.018352009356021881, -0.032701518386602402, 0.033895913511514664, -0.018203889951109886, 0.07674282044172287, 0.014199026860296726, -0.044629313051700592, 0.06882767379283905, -0.0042403102852404118, 0.0094692539423704147, 0.088679879903793335, 0.012806504964828491, 0.0059643266722559929, 0.0025048337411135435, 0.069396950304508209, -0.019587265327572823, -0.019084259867668152, 0.031370129436254501, -0.0095180263742804527, 0.0059039820916950703, -0.0076120318844914436, 0.059960812330245972, -0.025183254852890968, -0.042100865393877029, 0.0095533384010195732, -0.033378340303897858, 0.033704120665788651, 0.038806114345788956, 0.029337793588638306, -0.027956685051321983, 0.002611842006444931, 0.055464409291744232, -0.036519717425107956, 0.0091264117509126663, 0.074503704905509949, -0.044547196477651596, 0.024719838052988052, 0.030187532305717468, 0.035814981907606125, -0.0221867635846138, 0.0019401777535676956, -0.06993924081325531, -0.045845486223697662, 0.072694182395935059, 0.041899986565113068, 0.0026014326140284538, 0.061252087354660034, 0.050257984548807144, -0.019976604729890823, -0.00063070777105167508, -0.03122997097671032, -0.090819202363491058, 0.019211038947105408, -0.062067743390798569, 0.0061786482110619545, 0.046842854470014572, 0.066042341291904449, -0.0055282954126596451, 0.044172141700983047, 0.0015161724295467138, 0.080023922026157379, -0.07843703031539917, -0.041146982461214066, -0.046724535524845123, -0.025924118235707283, 0.030958633869886398, 0.01696203276515007, 8.0827630881685764e-05, 0.037058401852846146, -0.09924297034740448, -0.021050367504358292, 0.005371111910790205, 0.0078078638762235641, -0.03186199814081192, 0.056207899004220963, -0.0625506192445755, 0.099154770374298096, 0.012157464399933815, -0.0049083218909800053, 0.011093302629888058, -0.0067700478248298168, -0.077641762793064117, 0.085893109440803528, -0.014003964141011238, -0.016888955608010292, -0.0047047180123627186, -0.012617073021829128, -0.0030961779411882162, 0.022911744192242622, 0.045149080455303192, 0.027860945090651512, -0.0231501255184412, -0.0016631473554298282, 0.033319558948278427, -0.0041362070478498936, -0.049860943108797073, 0.017901478335261345, -0.022267824038863182, 0.021260308101773262, -0.02487935870885849, -0.046992238610982895, -0.010539309121668339, -0.040573000907897949, 0.062632814049720764, -0.031911879777908325, -0.090480096638202667, 0.086865454912185669, -0.0763825923204422, -0.024584699422121048, 0.0098189814016222954, -0.022863300517201424, -0.081289239227771759, 0.022005749866366386, -0.024928649887442589, 0.04611390084028244, 0.065955281257629395, -0.043618839234113693, -0.031402900815010071, 0.015662088990211487, -0.006828144658356905, 0.039067260921001434, 0.015670813620090485, -0.0082839662209153175, 0.0024782654363662004, 0.013972620479762554, -0.041577275842428207, -0.040475804358720779, 0.045080982148647308, -0.0032683887984603643, 0.033515233546495438, -0.03180752694606781, 0.022477531805634499, 0.069193921983242035, 0.0090225851163268089, -0.032162632793188095, -0.036689881235361099, 0.023771727457642555, 0.046386588364839554, 0.019750621169805527, 0.043245911598205566, 0.027921512722969055, -0.034327555447816849, 0.069254927337169647, -0.0036044709850102663, -0.0059129931032657623, 0.04240952804684639, -0.040085874497890472, -0.0040427711792290211, 0.088019989430904388, -0.020796079188585281, 0.035256531089544296, 0.053986608982086182, 0.03581300750374794, -0.013812214136123657, 0.0653800368309021, 0.025799442082643509, 0.057502679526805878, 0.015882959589362144, -0.039816956967115402, -0.04569384828209877, 0.068333998322486877, 0.01438368484377861, -0.068636432290077209, -0.048424974083900452, 0.093683212995529175, 0.0058864559978246689, 0.02968965657055378, -0.039008472114801407, 0.054796677082777023, 0.016637595370411873, -0.055440343916416168, -0.029204299673438072, 0.029692737385630608, 0.039366494864225388, -0.025998672470450401, 0.020086180418729782, -0.055799905210733414, -0.013819419778883457, 0.01959649845957756, -0.060816213488578796, 0.030767116695642471, 0.021511171013116837, 0.065901987254619598, -0.041636552661657333, 0.029602915048599243, 0.016788717359304428, -0.024109428748488426, -0.019067779183387756, -0.0062232427299022675, 0.018004357814788818, 0.034208793193101883, -0.027142371982336044, -0.020567342638969421, -0.026921389624476433, 0.011634470894932747, -0.019440315663814545, 0.018789870664477348, -0.0050308438949286938, 0.034285452216863632, 0.040046311914920807, 0.094276897609233856, -0.021639663726091385, -0.0083694225177168846, -0.054406732320785522, 0.033698465675115585, -0.074927970767021179, 0.023937471210956573, 0.025743573904037476, -0.025940518826246262, 0.018384546041488647, 0.006125990767031908, -0.027589887380599976, 0.052930273115634918, -0.011999539099633694, -0.011920350603759289, -0.017218954861164093, 0.00041241178405471146, -0.0076469415798783302, -0.041639260947704315, -0.00077904050704091787, 0.067700117826461792, -0.055262681096792221, 0.043512888252735138, 0.013171804137527943, -0.05165654793381691, 0.0077981823123991489, 0.01115119457244873, -0.029356159269809723, -0.031015399843454361, -0.031954959034919739, -0.050279811024665833, -0.041919343173503876, 0.060090970247983932, 0.021021723747253418, 0.0092267338186502457, -0.028702763840556145, 0.079705491662025452, -0.038325022906064987, 0.014308455400168896, -0.021689930930733681, 0.029441596940159798, -0.0021119744051247835, -0.030353326350450516, 0.0091923773288726807, -0.052295573055744171, -0.027850987389683723, 0.0081672817468643188, 0.033109351992607117, 0.029135560616850853, -0.027948625385761261, 0.073136739432811737, -0.037075772881507874, -0.025039311498403549, -0.0051054242067039013, 0.019188601523637772, -0.035750344395637512, 0.011493455618619919, -0.023195860907435417, 0.012098819017410278, 0.03805866464972496, -0.0070428205654025078, -0.045405179262161255, 0.035341084003448486, 0.058897409588098526, -0.005444427952170372, 0.068549305200576782, 0.0038059058133512735, 0.039633583277463913, 0.022751977667212486, -0.023389929905533791, 0.0078191673383116722, 0.036568131297826767, 0.080727994441986084, 0.059583220630884171, -0.065804257988929749, -0.028049860149621964, 0.0099457520991563797, 0.026089565828442574, 0.0048760068602859974, -0.051941096782684326, -0.028557037934660912, -0.0067013846710324287, -0.069113977253437042, -0.0087452279403805733, -0.048578415066003799, -0.065368317067623138, 0.021670719608664513, 0.0020589076448231936, 0.021431529894471169, 0.031631622463464737, -0.046586249023675919, -0.048223040997982025, -0.011309072375297546, -0.0067533645778894424, -0.011357999406754971, -0.021752651780843735, 0.017467757686972618, -0.053037580102682114, 0.044133376330137253, 0.059619203209877014, -0.0076680080965161324, -0.020236117765307426, -0.028307247906923294, 0.022893421351909637, 0.048790264874696732, 0.036857128143310547, -0.024481536820530891, 0.044264215975999832, 0.02339649572968483, 0.031230993568897247, -0.040469612926244736, 0.034493204206228256, -0.016058618202805519, -0.054923646152019501, -0.030543101951479912, 0.028510954231023788, -0.044295191764831543, -0.0071926936507225037, -0.0040492904372513294, 0.019467353820800781, 0.017709013074636459, -0.069239668548107147, 0.06904909759759903, -0.062597773969173431, -0.024849880486726761, 0.047330271452665329, -0.065565623342990875, 0.047512266784906387, 0.025328770279884338, -0.016179708763957024, 0.048330385237932205, -0.039222057908773422, -0.011979828588664532, -0.0035171532072126865, -0.016995422542095184, 0.055638294667005539, -0.048338957130908966, -0.007848275825381279, -0.032987844198942184, 0.03504616767168045, 0.0060510411858558655, 0.041976835578680038, -0.066646724939346313, 0.043058745563030243, -0.00026883234386332333, 0.0091195153072476387, -0.055556811392307281, -0.022707205265760422, 0.02914828434586525, 0.017086755484342575, -0.079491160809993744, 0.024257125332951546, -0.078273780643939972, -0.021435070782899857, -0.066075041890144348, 0.030282966792583466, -0.035373158752918243, 0.020823948085308075, 0.031865432858467102, -0.05464516207575798, -0.02975860983133316, -0.014554661698639393, -0.0070396694354712963, 0.030007757246494293, 0.017068669199943542, 0.023164857178926468, 0.022488744929432869, -0.030894231051206589, 0.022196857258677483, -0.0478934645652771, -0.0058879870921373367, 0.023947045207023621, -0.046141508966684341, 0.0020192537922412157, -0.012866108678281307, 0.0025070889387279749, -0.013398193754255772, -0.011778340674936771, 0.026804983615875244, -0.053517457097768784, 0.063496485352516174, 0.0019067581743001938, 0.0021127627696841955, 0.031411293894052505, 0.070157065987586975, -0.0077939704060554504, -0.044197499752044678, -0.027067825198173523, -0.070036508142948151, -0.036299757659435272, -0.0082696452736854553, 0.002888800110667944, 0.0011019291123375297, 0.0092709548771381378, 0.022905869409441948, -0.045073315501213074, -0.041586190462112427, 0.024772008880972862, -0.062394596636295319, 0.048246271908283234, 0.062872655689716339, 0.013786348514258862, 0.05572766438126564, 0.04269137978553772, -0.068694144487380981, 0.018271232023835182, -0.02487083338201046, 0.0083614084869623184, -0.010103129781782627, -0.024785088375210762, -0.028265045955777168, 0.034593392163515091, -0.037893243134021759, -0.027815600857138634, -0.026615569368004799, -0.039241611957550049, -0.035127278417348862, -0.021688863635063171, -0.0037983204238116741, -0.017846371978521347, 0.010544240474700928, -0.043183960020542145, 0.030205348506569862, -0.023002799600362778, 0.0085383681580424309, -0.010121307335793972, 0.0034730280749499798, 0.034816797822713852, -0.049412574619054794, -0.0043112956918776035, -0.028946943581104279, -0.057876750826835632, -0.050265740603208542, -0.014670793898403645, 0.034251667559146881, -0.027856688946485519, -0.025796744972467422, 0.030040958896279335, 0.0019531169673427939, 0.069036737084388733, -0.039077773690223694, 0.063277706503868103, -0.02434919960796833, -0.02870236337184906, 0.015983998775482178, 0.0096543729305267334, -0.067830018699169159, -0.0030114275868982077, 0.016871744766831398, -0.044492512941360474, 0.026986056938767433, -0.042165067046880722, -0.058427013456821442, -0.05857544019818306, 0.031600896269083023, -0.039642881602048874, 0.064050853252410889, -0.080793857574462891, 0.040050666779279709, -0.011264277622103691, -0.049373716115951538, -0.044759631156921387, 0.044449895620346069, -0.026152275502681732, -0.033716928213834763, -0.013585928827524185, 0.04789411649107933, -0.024916507303714752, -0.027798131108283997, 0.046248972415924072, 0.020362908020615578, 0.063573546707630157, 0.042052265256643295, -0.07644730806350708, 0.038345623761415482, 0.039177972823381424, -0.072913996875286102, -0.011414645239710808, -0.0603504478931427, 0.056278202682733536, -0.025804385542869568, 0.040952514857053757, 0.0091764107346534729, -0.021056074649095535, -0.041667725890874863, 0.018665174022316933, -0.062273766845464706, -0.00062012381386011839, -0.047479879111051559, 0.026716755703091621, -0.036847900599241257, -0.018006004393100739, 0.047798134386539459, -0.03448835015296936, -0.053167257457971573, 0.0022772655356675386, -0.059879150241613388, -0.017809709534049034, 0.0065998733043670654, 0.060945931822061539, 0.013927588239312172, 0.0035775683354586363, 0.020245319232344627, -0.0060278712771832943, -0.038431901484727859, -0.042106986045837402, 0.0040866527706384659, 0.02948208712041378, 0.0095700593665242195, 0.034209683537483215, 0.011678045615553856, -0.023623887449502945, 0.04210798442363739, -0.035243935883045197, 0.020641569048166275, 0.03420880064368248, 0.035699032247066498, 0.020847555249929428, -0.052862614393234253, -0.034688420593738556, 0.013843424618244171, 0.025429893285036087, -0.029501216486096382, -0.022254083305597305, 0.018137475475668907, 0.0080006476491689682, 0.0026075365021824837, 0.0025298285763710737, -0.015409749001264572, -0.038247089833021164, -0.026120005175471306, -0.049363240599632263, 0.0029397208709269762, 0.033179320394992828, 0.0043702968396246433, 0.036564219743013382, -0.023516818881034851, 0.045197207480669022, -0.013673846609890461, 0.024800850078463554, 0.016515655443072319, -0.0071027697995305061, -0.040800057351589203, -0.00097204442135989666, -0.044599603861570358, 0.033182576298713684, 0.05560925230383873, 0.0037819480057805777, -0.046705931425094604, -0.039011597633361816, -0.050391770899295807, 0.025540752336382866, 0.017293581739068031, 0.005395066924393177, -0.03581695631146431, -0.0062133385799825191, -0.015324301086366177, -0.060278180986642838, -0.040179651230573654, 0.04303794726729393, 0.022148739546537399, -0.039987072348594666, -0.025513138622045517, 0.037925802171230316, 0.033975284546613693, 0.00099283689633011818, 0.030254222452640533, -0.048796821385622025, -0.06835135817527771, -0.032631833106279373, 0.027128005400300026, 0.011117305606603622, 0.00719051668420434, -0.042982194572687149, 0.0016416078433394432, 0.0082567259669303894, 0.020279580727219582, -0.00058225251268595457, -0.024385634809732437, 0.035450737923383713, -0.02891923300921917, -0.070294752717018127, 0.017134614288806915, -0.032428823411464691, -0.052810218185186386, 0.030926162376999855, -0.054782673716545105, 0.065856501460075378, 0.029881646856665611, 0.027745051309466362, -0.021504808217287064, -0.0077810576185584068, -0.013562452979385853, -0.055719915777444839, -0.043604109436273575, -0.010411804541945457, 0.0017569091869518161, -0.046141855418682098, 0.019973622635006905, -0.039942663162946701, 0.074144989252090454, -0.0060124127194285393, -0.042889341711997986, -0.041011866182088852, -0.074942171573638916, 0.049295425415039062, 0.02971561998128891, -0.015475970692932606, -0.0008744884398765862, -0.0091093862429261208, -0.033374659717082977, -0.011532922275364399, 0.033739782869815826, -0.0064903432503342628, 0.014004359021782875, 0.0032780759502202272, -0.060612276196479797, -0.047215543687343597, -0.017333781346678734, -0.027582244947552681, -0.0051926742307841778, -0.020023977383971214, -0.041725765913724899, 0.012186230160295963, -0.034529712051153183, -0.018996076658368111, 0.0026208215858787298, 0.025130996480584145, -0.031823918223381042, 0.010938950814306736, -0.04852769523859024, -0.0083334539085626602, -0.041210677474737167, -0.00764101417735219, -0.046726759523153305, -0.0024353163316845894, 0.054710362106561661, 0.02188090980052948, -0.0030223289504647255, 0.037165950983762741, -0.06102849543094635, 0.013428837060928345, 0.044804938137531281, 0.032634463161230087, -0.048057042062282562, -0.0063731502741575241, -0.021637521684169769, 0.0033560898154973984, 0.04966740682721138, 0.017162146046757698, 0.05078597366809845, -0.015192230232059956, 0.045618690550327301, -0.013281747698783875, -0.041746214032173157, 0.003077817615121603, -0.043764624744653702, 0.018320167437195778, 0.0070740706287324429, 0.064551077783107758, 0.010154747404158115, 0.056982710957527161, -0.049912035465240479, 0.034572049975395203, -0.040450617671012878, 0.033093828707933426, 0.028323613107204437, -0.020646605640649796, 0.055027477443218231, -0.041690751910209656, 0.025789162144064903, 0.027498137205839157, -0.0059260586276650429, 0.027940263971686363, 0.045049652457237244, 0.0045491363853216171, -0.061398442834615707, -0.010346546769142151, -0.053339365869760513, 0.030547158792614937, -0.011615656316280365, -0.027933040633797646, -0.019359895959496498, 0.031493570655584335, 0.024458343163132668, -0.018446248024702072, -0.040934201329946518, 0.031011851504445076, -0.022909624502062798, -0.049138229340314865, -0.028667952865362167, 0.012879142537713051, -0.01564733125269413, 0.0030358710791915655, -0.023078989237546921, 0.021646639332175255, -0.039803311228752136, 0.010580091737210751, 0.030645821243524551, 0.0029471092857420444, -0.030530350282788277, 0.038217417895793915, -0.049964644014835358, 0.025742985308170319, -0.01062307320535183, -0.052651096135377884, -0.039884883910417557, -0.034219976514577866, -0.028505563735961914, 0.033874519169330597, 0.037653136998414993, 0.014486392959952354, 0.033100880682468414, -0.0036838054656982422, 0.022604268044233322, 0.0005499444087035954, -0.051090031862258911, 0.0019059188198298216, -0.034053903073072433, -0.044020485132932663, 0.022661022841930389, 0.050997354090213776, 0.019927220419049263, 0.027063168585300446, -0.024943051859736443, -0.053062204271554947, -0.013667622581124306, 0.030407128855586052, -0.010945548303425312, -0.038068816065788269, 0.0011934004724025726, -0.00065942533547058702, 0.033192597329616547, 0.062136568129062653, -0.00375182437710464, -0.03961944580078125, 0.025514634326100349, 0.039734188467264175, -0.038507826626300812, -0.020598392933607101, 0.01582007110118866, -0.033730432391166687, -0.056496337056159973, -0.042185217142105103, 0.042974773794412613, -0.021408101543784142, -0.034880958497524261, -0.027164870873093605, -0.011922899633646011, 0.027673274278640747, 0.027197537943720818, 0.03786245733499527, 0.034790974110364914, -0.057238377630710602, -0.043966319411993027, -0.052064180374145508, 0.053652338683605194, -0.036830861121416092, 0.038687273859977722, -0.014906125143170357, 0.022689666599035263, -0.065358638763427734, 0.03940100222826004, 0.0011951345950365067, -0.013066086918115616, -0.012658934108912945, 0.0052884584292769432, 0.00041371615952812135, 0.0014187608612701297, 0.011782390996813774, -0.010734103620052338, -0.047859638929367065, -0.035960804671049118, -0.010606789030134678, -0.029184956103563309, 0.01690293662250042, -0.017147315666079521, -0.047649268060922623, 0.00093412480782717466, 0.0098270634189248085, 0.025310033932328224, 0.031586647033691406, 0.029938323423266411, -0.042585961520671844, 0.031847011297941208, 0.0060248561203479767, -0.044282831251621246, -0.041123323142528534, -0.023762492462992668, 0.039145775139331818, 0.037743307650089264, -0.0082381023094058037, -0.04062778502702713, -0.011487831361591816, -0.044641751796007156, 0.012019566260278225, 0.051312949508428574, 0.034174259752035141, 0.050262205302715302, 0.068822294473648071, -0.026091912761330605, -0.049399681389331818, -0.00079559115692973137, 0.053687416017055511, -0.02848052978515625, 0.069524504244327545, -0.0057401694357395172, -0.053980585187673569, -0.021369563415646553, 8.3026221545878798e-05, -0.042542010545730591, -0.055189449340105057, -0.043522074818611145, -0.020248346030712128, -0.021377528086304665, 0.040745459496974945, -0.0015572704141959548, -0.014984449371695518, -0.035893708467483521, -0.029776079580187798, 0.0063584609888494015, -0.016104387119412422, 0.029898606240749359, -0.016907751560211182, 0.010922336019575596, 0.010539642535150051, 0.040885969996452332, -0.02102377638220787, -0.028455309569835663, -0.0020474798511713743, -0.0027709712740033865, -0.043847471475601196, -0.023129083216190338, -0.022925106808543205, -0.052708711475133896, -0.0027891413774341345, -0.043651442974805832, -0.014875458553433418, -0.024273421615362167, -0.0072614587843418121, -0.012484662234783173, 0.070997491478919983, -0.013344423845410347, -0.023175245150923729, -0.0023625139147043228, 0.0091316243633627892, -0.020271692425012589, -0.016267737373709679, -0.0088665066286921501, 0.021087812259793282, 0.0096416845917701721, -0.0085204476490616798, -0.02835063636302948, -0.057866171002388, -0.025818504393100739, 0.037507642060518265, 0.025495536625385284, 0.03726375475525856, -0.03475511446595192, 0.059225846081972122, 0.037348993122577667, 0.023652847856283188, 0.068648591637611389, -0.048173185437917709, -0.021914754062891006, -0.028457457199692726, -0.021163882687687874, 0.039427943527698517, 0.013213419355452061, 0.0043268166482448578, 0.011165021918714046, 0.026366172358393669, -0.030378635972738266, -0.0026253741234540939, -0.020872391760349274, 0.0020258708391338587, 0.021035708487033844, -0.021710515022277832, -0.044087223708629608, 0.0059020859189331532, 0.017074326053261757, -0.044775012880563736, -0.066484928131103516, 0.028468314558267593, 0.013661201111972332, 0.011527331545948982, -0.058256693184375763, -0.019066944718360901, 0.043210726231336594, -0.0097175613045692444, -0.036708973348140717, 0.0023362233769148588, -0.027366627007722855, 0.0246245376765728, -0.035037383437156677, 0.0096917403861880302, -0.045092564076185226, -0.035576790571212769, 0.054627742618322372, -0.071824543178081512, 0.0096196616068482399, 0.036695532500743866, 0.031761471182107925, 0.026351893320679665, -0.018508879467844963, -0.045167747884988785, 0.01733836904168129, 0.050453182309865952, -0.031832259148359299, -0.0038165077567100525, -0.00024340882373508066, 0.065184824168682098, -0.0033550914376974106, -0.032559197396039963, -0.033275201916694641, 0.012503912672400475, 0.039522700011730194, -0.035448256880044937, -0.012323318049311638, -0.03878069669008255, 0.047336865216493607, -0.019966574385762215, -0.012381184846162796, -0.058480609208345413, 0.037576258182525635, -0.059990882873535156, -0.05879727378487587, 0.014047111384570599, -0.032088138163089752, 0.052918892353773117, -0.06464821845293045, -0.011839220300316811, -0.0469992496073246, 0.027830766513943672, 0.034815113991498947, 0.0071821440942585468, -0.052475899457931519, 0.066381655633449554, -0.064428627490997314, 0.041428182274103165, 0.038814589381217957, 0.021503569558262825, -0.038773346692323685, -0.032855391502380371, -0.058047819882631302, -0.046881463378667831, 0.04243817925453186, -0.0076761599630117416, 0.044308964163064957, 0.01398517657071352, -0.0014362678630277514, 0.0075255604460835457, -0.048914972692728043, -0.029091173782944679, -0.058728355914354324, -0.0010198920499533415, 0.0041614063084125519, -0.023743912577629089, -0.050802998244762421, 0.0074856989085674286, 0.073755696415901184, 0.016494529321789742, 0.0012110188836231828, 0.042859252542257309, -0.023435954004526138, -0.035302251577377319, 0.022185573354363441, 0.026766825467348099, -0.03196847066283226, 0.0195111483335495, 0.038300015032291412, -0.030593635514378548, -0.05326852947473526, 0.021537907421588898, -0.0026612069923430681, 0.037026252597570419, 0.052723675966262817, -0.014632510952651501, -0.033498700708150864, 0.052272018045186996, -0.034572474658489227, -0.020696992054581642, -0.0082722818478941917, 0.0054565276950597763, 0.043810363858938217, 0.031680572777986526, -0.035804219543933868, -0.046089600771665573, -0.024824703112244606, 0.041331790387630463, -0.061951011419296265, -0.026651270687580109, 0.052035991102457047, -0.014841861091554165, 0.020683497190475464, -0.055846612900495529, 0.071864478290081024, -0.037377707660198212, 0.042176976799964905, -0.0033576746936887503, 0.023964626714587212, 0.0098626064136624336, -0.047920476645231247, -0.019194893538951874, 0.038837891072034836, 0.041640490293502808, -0.007408767007291317, 0.0037988231051713228, -0.046387020498514175, 0.031532838940620422, 0.0096234092488884926, -0.009766601026058197, 0.033983852714300156, -0.033393517136573792, -0.022067027166485786, 0.02697124145925045, -0.059263531118631363, 0.020774759352207184, 0.0095030544325709343, -0.0048023825511336327, 0.020850950852036476, 0.067905180156230927, -0.047341842204332352, -0.017516661435365677, -0.055540826171636581, 0.027036925777792931, -0.0040655755437910557, 0.020042557269334793, -0.028975777328014374, 0.031361322849988937, 0.027355339378118515, -0.029908761382102966, 0.061332155019044876, 0.0023695987183600664, 0.026580711826682091, -0.064151383936405182, -0.017181452363729477, -0.047927767038345337, 0.015547601506114006, 0.053920745849609375, -0.057048223912715912, -0.053268086165189743, 0.055824175477027893, -0.0032273726537823677, -0.026779083535075188, -0.03767554834485054, 0.02165905199944973, 0.005653375294059515, -0.023965837433934212, -0.046267122030258179, 0.013682226650416851, 0.021389167755842209, 0.00039687947719357908, -0.048148594796657562, -0.042818419635295868, -0.016812097281217575, -0.053030963987112045, -0.021075893193483353, -0.027810074388980865, -0.019334368407726288, 0.025756653398275375, 0.026649439707398415, -0.037181545048952103, 0.039967749267816544, -0.020798107609152794, -0.051565438508987427, 0.048470325767993927, -0.014267762191593647, 0.028042547404766083, 0.034689608961343765, 0.029593989253044128, -0.0044344118796288967, 0.0046671982854604721, 0.040025152266025543, 0.026272386312484741, -0.038243994116783142, 0.032072793692350388, 0.021345483139157295, -0.03507697582244873, -0.035000469535589218, 0.039294596761465073, 0.024670859798789024, -0.041195940226316452, -0.060102969408035278, 0.022877823561429977, -0.004070342518389225, 0.044495236128568649, 0.029000859707593918, 0.0060719149187207222, -0.053006649017333984, -0.010040704160928726, -0.0017001840751618147, 0.047061275690793991, 0.058828059583902359, 0.013406566344201565, 0.030946413055062294, -0.025547223165631294, 0.026720914989709854, -0.0036897859536111355, 0.012513183988630772, 0.049258541315793991, -0.028797905892133713, -0.012892742641270161, -0.045697811990976334, 0.062389474362134933, -0.010593903250992298, -0.041199006140232086, -0.035783872008323669, -0.044739563018083572, 0.049317855387926102, 0.013480366207659245, 0.024264046922326088, -0.042587380856275558, -0.064552880823612213, 0.017192928120493889, 0.0030300256330519915, 0.054108664393424988, 0.015733242034912109, -0.031342834234237671, 0.042935315519571304, -0.068551287055015564, -0.056944664567708969, -0.043556779623031616, -0.01266106404364109, -0.019963847473263741, -0.048802446573972702, 0.025032266974449158, 0.032979298382997513, -0.02826174721121788, -0.019647806882858276, 0.0041553191840648651, 0.0039071701467037201, -0.021736286580562592, 0.039804890751838684, 0.019870992749929428, -0.02598227746784687, 0.040918555110692978, 0.040502607822418213, 0.065130159258842468, -0.037786763161420822, 0.0058784447610378265, -0.057262472808361053, -0.005764286033809185, -0.039121184498071671, -0.010301721282303333, -0.043585650622844696, -0.058557163923978806, 0.021608492359519005, -0.070060625672340393, 0.024109683930873871, -0.069894291460514069, -0.02376132644712925, -0.037873778492212296, -0.018163315951824188, 0.0048130345530807972, -0.033345390111207962, -0.042737320065498352, -0.051760803908109665, -0.033427782356739044, -0.030488049611449242, 0.0018349736928939819, -0.031032554805278778, -0.017158778384327888, 0.0089542940258979797, -0.014628348872065544, 0.0091685093939304352, -0.0604967400431633, 0.041338555514812469, -0.02752322144806385, 0.0051547437906265259, -0.016601409763097763, -0.04113093763589859, -0.033404573798179626, 0.03912489116191864, 0.042773205786943436, 0.026242058724164963, 0.047619704157114029, 0.023083871230483055, -0.0084787597879767418, 0.018696172162890434, -0.005786089226603508, -0.0061423997394740582, -0.054261345416307449, 0.021820534020662308, -0.04133707657456398, 0.010634191334247589, -0.063796080648899078, -0.076957955956459045, -0.022982478141784668, -0.010650604031980038, -0.03475729376077652, 0.014249495230615139, -0.042979847639799118, 0.020816443488001823, 0.0083093568682670593, 0.01301097683608532, -0.0074463807977735996, -0.051194649189710617, -0.051878880709409714, 0.065178520977497101, 0.039772316813468933, 0.051499009132385254, -0.046268723905086517, 0.010497124865651131, -0.044697258621454239, -0.019734403118491173, -0.0041210758499801159, -0.030425118282437325, 0.0034956471063196659, 0.031984977424144745, 0.019484469667077065, 0.0012191090499982238, -0.014566567726433277, -0.039815604686737061, 0.018301321193575859, -0.025112513452768326, -0.054459042847156525, 0.0047975378111004829, -0.003079909598454833, 0.022043809294700623, -0.051723740994930267, 0.0018261853838339448, -0.023066852241754532, -0.030801195651292801, -0.024452006444334984, -0.021616160869598389, -0.079275049269199371, 0.016355853527784348, 0.015200352296233177, 0.018822455778717995, -0.028091384097933769, 0.03152383491396904, 0.035898640751838684, -0.0081260455772280693, -0.015135652385652065, 0.017209900543093681, 0.0067342119291424751, 0.036773506551980972, 0.01307810191065073, 0.020333001390099525, -0.051750738173723221, 0.028382591903209686, 0.024461781606078148, 0.015698062255978584, -0.027025820687413216, 0.036589674651622772, 0.00084229436470195651, 0.015092317946255207, -0.016730306670069695, 0.009392627514898777, -0.0015181164490059018, 0.051661524921655655, 0.040361810475587845, 0.056101199239492416, -0.0075122821144759655, 0.035694554448127747, 0.0018386837327852845, -0.012904959730803967, 0.017049126327037811, -0.043430604040622711, -0.031090846285223961, 0.0098508428782224655, 0.030014051124453545, 0.057944387197494507, -0.024811631068587303, 0.031053148210048676, 0.016001200303435326, 0.037868905812501907, -0.026908250525593758, -0.034973345696926117, -0.07763516902923584, -0.012287616729736328, 0.010966234840452671, -0.00011941134289372712, -0.056359738111495972, 0.0011831704759970307, -0.027257885783910751, -0.060270622372627258, -0.0064031234942376614, 0.037178877741098404, 0.0055904150940477848, -0.024999618530273438, 0.026063326746225357, -0.063721872866153717, 0.078940130770206451, -0.025763032957911491, -0.039965178817510605, 0.024667335674166679, 0.039343852549791336, -0.02973487414419651, -0.042161427438259125, -0.017975252121686935, 0.025257017463445663, 0.0059827771037817001, 0.010831018909811974, -0.050116453319787979, -0.018403651192784309, 0.055497605353593826, 0.027845744043588638, -0.033551663160324097, 0.039407536387443542, -0.011755960062146187, -0.039215877652168274, -0.021315781399607658, 0.010535553097724915, -0.0028234284836798906, 0.034117989242076874, -0.041553191840648651, 0.00076678575715050101, -0.027332847937941551, -0.031665503978729248, 0.016508005559444427, -0.018500829115509987, -0.028170296922326088, 0.030737848952412605, -0.039387896656990051, 0.02063618041574955, -0.020774830132722855, 0.0011653429828584194, -0.0022394505795091391, 0.039653554558753967, 0.028467347845435143, 0.067942537367343903, -0.015180662274360657, -0.021429723128676414, -0.015369604341685772, -0.0476994588971138, 0.031910005956888199, 0.022368965670466423, -0.03165106475353241, -0.056182421743869781, 0.0043630627915263176, -0.02075524628162384, 0.023043613880872726, -0.073570586740970612, 0.0027965602930635214, -0.0020057470537722111, 0.026616480201482773, -0.049380511045455933, 0.035034485161304474, -0.0048223566263914108, -0.012881017290055752, -0.026372823864221573, -0.041652753949165344, 0.033218815922737122, 0.067009441554546356, -0.017372285947203636, 0.061802573502063751, -0.015233686193823814, 0.04023326188325882, -0.016183285042643547, -0.0093865050002932549, 0.0068260836414992809, -0.048637773841619492, 0.030566059052944183, -0.058100603520870209, 0.0066743050701916218, -0.054845552891492844, -0.018139418214559555, 0.0474538654088974, 0.037660498172044754, 0.060882624238729477, 0.005383606068789959, 0.053389199078083038, 0.022603040561079979, 0.013715416193008423, -0.060692932456731796, -0.057060811668634415, -0.040152322500944138, 0.062359947711229324, -0.069568939507007599, 0.03556269034743309, -0.025484722107648849, -0.014547089114785194, 0.0099572381004691124, 0.063278429210186005, -0.06392960250377655, -0.055811293423175812, 0.025883076712489128, -0.016415704041719437, -0.0035429869312793016, 0.0094820735976099968, 0.0085497135296463966, -0.038433343172073364, 0.0046485890634357929, -0.044467553496360779, 0.033392429351806641, 0.050603281706571579, -0.0559103824198246, -0.02734680287539959, 0.06652909517288208, -0.021883754059672356, -0.027329334989190102, -0.029789961874485016, -0.036370187997817993, 0.046521909534931183, 0.040377829223871231, 0.00090043339878320694, 0.039981644600629807, -0.011373686604201794, -0.018284041434526443, 0.036996327340602875, 0.038723114877939224, 0.032158240675926208, -0.012304344214498997, -0.029925733804702759, -0.032773744314908981, -0.028049103915691376, 0.0081288795918226242, -0.038632340729236603, -0.040208257734775543, -0.029382452368736267, 0.0023061209358274937, -0.042766403406858444, -0.028980677947402, 0.0093556558713316917, -0.043491251766681671, 0.072486445307731628, 0.016333304345607758, -0.049684531986713409, 0.0026826488319784403, 0.03975958377122879, -0.013102686032652855, -0.030256131663918495, 0.027337616309523582, 0.018098603934049606, -0.036035522818565369, -0.034319929778575897, 0.080070190131664276, 0.011124659329652786, -0.016087589785456657, 0.0017124383011832833, 0.072668053209781647, 0.017095537856221199, 0.0091088525950908661, 0.058768570423126221, 0.016959590837359428, 0.036801297217607498, 0.011297800578176975, 0.0092885717749595642, -0.021605132147669792, 0.0010936924954876304, -0.039857223629951477, -0.040298569947481155, -0.047785665839910507, -0.0086456984281539917, -0.043015189468860626, -0.025193342939019203, 0.012636816129088402, -0.025488415732979774, 0.018908452242612839, 0.049571361392736435, 0.010462256148457527, 0.060170069336891174, 0.071374677121639252, 0.010077952407300472, -0.020136827602982521, -0.051572058349847794, 0.0018049153732135892, -0.00013819668674841523, -0.034211877733469009, 0.027089355513453484, -0.027845494449138641, -0.031282588839530945, 0.075521640479564667, -0.00033195826108567417, 0.0063878209330141544, 0.058099683374166489, 0.01921221986413002, 0.033444449305534363, -0.0058714658953249454, 0.0033990277443081141, -0.031142096966505051, -0.04786970466375351, -0.0019500672351568937, -0.067791968584060669, 0.033862832933664322, -0.023851010948419571, 0.0034680806566029787, -0.025801222771406174, 0.030907748267054558, -0.013931017369031906, -0.053676195442676544, -0.024459235370159149, 0.014550019986927509, -0.042330823838710785, 0.046023871749639511, -0.00013961255899630487, 0.011766795068979263, 0.016316922381520271, 0.0016826963983476162, 0.00065343582537025213, -0.031002338975667953, 
